Language model created by QuickLM on Thu Sep 25 09:22:15 EDT 2014
Copyright (c) 1996-2010 Carnegie Mellon University and Alexander I. Rudnicky

The model is in standard ARPA format, designed by Doug Paul while he was at MITRE.

The code that was used to produce this language model is available in Open Source.
Please visit http://www.speech.cs.cmu.edu/tools/ for more information

The (fixed) discount mass is 0.5. The backoffs are computed using the ratio method.
This model based on a corpus of 4 sentences and 6 words

\data\
ngram 1=6
ngram 2=8
ngram 3=4

\1-grams:
-0.7782 </s> -0.3010
-0.7782 <s> -0.2218
-1.3802 DID -0.2218
-1.3802 EASYNAV -0.2218
-1.3802 WHAT -0.2218
-1.3802 WHICH -0.2218

\2-grams:
-0.9031 <s> DID 0.0000
-0.9031 <s> EASYNAV 0.0000
-0.9031 <s> WHAT 0.0000
-0.9031 <s> WHICH 0.0000
-0.3010 DID </s> -0.3010
-0.3010 EASYNAV </s> -0.3010
-0.3010 WHAT </s> -0.3010
-0.3010 WHICH </s> -0.3010

\3-grams:
-0.3010 <s> DID </s>
-0.3010 <s> EASYNAV </s>
-0.3010 <s> WHAT </s>
-0.3010 <s> WHICH </s>

\end\